{"input":{"shape":[2,2,4],"stride":[8,4,1],"data":[0.31047144532203674,-0.5263485908508301,-0.2483978271484375,-1.2473407983779907,0.7588106393814087,-0.20819300413131714,1.2272928953170776,-0.8387302160263062,1.2783383131027222,-1.3045125007629395,1.3241329193115234,0.7569308876991272,1.5659786462783813,0.020181743428111076,-0.8329986333847046,0.3564818203449249],"ptr_offset":0,"data_type":"f32"},"input_grad":{"shape":[2,2,4],"stride":[8,4,1],"data":[-0.14711643755435944,0.056485019624233246,-0.058382317423820496,-0.026996469125151634,-0.09521569311618805,0.03766832500696182,-0.017149347811937332,-0.013951767235994339,-0.03740550950169563,0.013706554658710957,0.009607412852346897,0.001159975305199623,-0.06458336859941483,0.027406767010688782,-0.018826285377144814,-0.013021022081375122],"ptr_offset":0,"data_type":"f32"},"output":{"shape":[2,2,4],"stride":[8,4,1],"data":[-0.007910423912107944,-0.10469687730073929,0.17634423077106476,-0.24369660019874573,0.023979518562555313,-0.09293008595705032,0.11953510344028473,-0.2745876610279083,0.01019994542002678,-0.1855412721633911,0.17709387838840485,-0.4204536974430084,0.033900871872901917,-0.20860329270362854,0.14856001734733582,-0.4332284927368164],"ptr_offset":0,"data_type":"f32"},"hidden":{"shape":[2,2,4],"stride":[8,4,1],"data":[0.11567609012126923,-0.4963149428367615,0.002100124955177307,0.39174285531044006,0.25583505630493164,-0.2612617015838623,0.1943020522594452,0.34248143434524536,0.01019994542002678,-0.1855412721633911,0.17709387838840485,-0.4204536974430084,0.033900871872901917,-0.20860329270362854,0.14856001734733582,-0.4332284927368164],"ptr_offset":0,"data_type":"f32"},"output_grad":{"shape":[2,2,4],"stride":[8,4,1],"data":[1,1,1,1,1,1,1,1,1,1,1,1,1,1,1,1],"ptr_offset":0,"data_type":"f32"},"rnn.weight_ih_l0":{"shape":[12,4],"stride":[4,1],"data":[-0.14608150720596313,0.285772442817688,-0.140466570854187,0.39333051443099976,0.3753369450569153,-0.08395648002624512,-0.4139198660850525,0.23216551542282104,0.33832311630249023,-0.46846896409988403,-0.3913601040840149,0.3509262204170227,0.044377803802490234,-0.10959893465042114,0.062146127223968506,-0.2674044370651245,0.09132158756256104,-0.30917948484420776,-0.3743661642074585,-0.2628101706504822,0.07672697305679321,0.10190916061401367,0.09432655572891235,-0.463268518447876,0.21459424495697021,-0.1494719386100769,-0.02518707513809204,-0.15404075384140015,0.19912785291671753,0.09791356325149536,0.2052973508834839,-0.18006688356399536,0.3944762945175171,-0.162156879901886,-0.15721499919891357,-0.35379064083099365,-0.34263187646865845,0.26372450590133667,-0.3164122700691223,-0.026261210441589355,0.4177701473236084,0.3236513137817383,0.1550711989402771,0.0658910870552063,0.4160841703414917,-0.32211053371429443,0.16605055332183838,0.09225684404373169],"ptr_offset":0,"data_type":"f32"},"rnn.weight_ih_l0_grad":{"shape":[12,4],"stride":[4,1],"data":[-0.010246767662465572,0.005462636239826679,-0.006477697752416134,0.0026522548869252205,0.001479861093685031,-0.0010174198541790247,0.00031866534845903516,-0.002100867684930563,0.008378869853913784,-0.005344264209270477,0.004366355482488871,-0.008692124858498573,0.042441390454769135,-0.02024383470416069,0.005875255912542343,-0.03674191236495972,0.022044293582439423,-0.007024655118584633,0.0005661323666572571,-0.02658170461654663,0.022127950564026833,-0.01552973035722971,0.024375861510634422,-0.011996183544397354,0.019094374030828476,-0.0006807709578424692,0.019836612045764923,0.020895976573228836,0.15093177556991577,-0.08736442029476166,0.10658558458089828,-0.02151845023036003,-0.1872006058692932,0.10893256962299347,-0.13493803143501282,0.04966588690876961,0.051813386380672455,-0.033261947333812714,0.010186940431594849,-0.0613185279071331,-0.15986019372940063,0.0942835733294487,-0.06275615096092224,0.10990767180919647,-0.368024080991745,0.1784631609916687,-0.05603458359837532,0.32302725315093994],"ptr_offset":0,"data_type":"f32"},"rnn.weight_hh_l0":{"shape":[12,4],"stride":[4,1],"data":[-0.4115830063819885,0.3775143623352051,0.1056714653968811,-0.14761734008789062,-0.4737464189529419,-0.21274149417877197,-0.4587973952293396,-0.10141772031784058,-0.1648678183555603,-0.32155531644821167,-0.16762930154800415,0.06973212957382202,0.20871394872665405,-0.250619113445282,0.13123279809951782,0.028011620044708252,0.1621842384338379,0.4346389174461365,0.37628233432769775,0.30912625789642334,0.48611199855804443,0.2522706389427185,0.41213828325271606,0.030618011951446533,-0.27952879667282104,0.49098485708236694,-0.354871928691864,-0.38716191053390503,0.12990343570709229,0.1341555118560791,-0.42788028717041016,-0.4914764165878296,-0.11191922426223755,-0.2304668426513672,0.14124828577041626,-0.2144935131072998,-0.27107512950897217,0.26228201389312744,0.15821683406829834,0.45551496744155884,0.1947377324104309,-0.2247711420059204,-0.07837700843811035,-0.2628554701805115,-0.3976125717163086,-0.3822224736213684,-0.3992306590080261,-0.3407132625579834],"ptr_offset":0,"data_type":"f32"},"rnn.weight_hh_l0_grad":{"shape":[12,4],"stride":[4,1],"data":[-0.0007057408802211285,0.0006297326181083918,0.0001238098047906533,-0.0005278377793729305,5.412314203567803e-05,-6.870595825603232e-05,1.2579859685502015e-05,5.440806125989184e-05,0.0003673350147437304,-0.00036472047213464975,-2.4484936147928238e-05,0.0002999487332999706,0.002146068960428238,-0.0029637026600539684,0.0007577171782031655,0.0023207247722893953,0.0006711753085255623,-0.0015452957013621926,0.000905762892216444,0.0011477761436253786,0.0012414776720106602,-0.0006196067552082241,-0.0007457294850610197,0.0005954219959676266,0.0017533135833218694,-0.001730315387248993,-0.00012824393343180418,0.0014244968770071864,0.011259298771619797,-0.009045282378792763,-0.0030582183972001076,0.007737745530903339,-0.0041463058441877365,0.0036766298580914736,0.0007523983949795365,-0.003085329895839095,0.0015818787505850196,-0.0020485580898821354,0.00041143433190882206,0.0016178154619410634,-0.007694512140005827,0.00794270634651184,0.00018523982726037502,-0.006489709950983524,-0.006250327918678522,0.008459985256195068,-0.0020211676601320505,-0.006641868501901627],"ptr_offset":0,"data_type":"f32"},"rnn.bias_ih_l0":{"shape":[12],"stride":[1],"data":[0.07406884431838989,0.0032592415809631348,0.33849668502807617,-0.23183876276016235,0.3347715735435486,0.48712992668151855,0.43125492334365845,-0.35924971103668213,-0.23061531782150269,-0.12992650270462036,0.03731644153594971,0.21099954843521118],"ptr_offset":0,"data_type":"f32"},"rnn.bias_ih_l0_grad":{"shape":[12],"stride":[1],"data":[-0.010526490397751331,0.002419841242954135,0.011996983550488949,0.05537678301334381,0.031170567497611046,0.02672451175749302,0.004071135073900223,0.1488756537437439,-0.19561146199703217,0.07818251848220825,-0.2003842294216156,-0.483154296875],"ptr_offset":0,"data_type":"f32"},"rnn.bias_hh_l0":{"shape":[12],"stride":[1],"data":[-0.41030293703079224,0.1254873275756836,0.27579015493392944,-0.4827600121498108,-0.19063293933868408,-0.4039286971092224,-0.10455536842346191,0.4352443218231201,0.2690991163253784,0.1326419711112976,-0.2968728542327881,-0.4688687324523926],"ptr_offset":0,"data_type":"f32"},"rnn.bias_hh_l0_grad":{"shape":[12],"stride":[1],"data":[-0.010526490397751331,0.002419841242954135,0.011996984481811523,0.05537678673863411,0.031170567497611046,0.02672451175749302,0.004071135073900223,0.1488756537437439,-0.05729487165808678,0.04207463935017586,-0.13590015470981598,-0.19069214165210724],"ptr_offset":0,"data_type":"f32"},"rnn.weight_ih_l1":{"shape":[12,4],"stride":[4,1],"data":[-0.2694193124771118,0.09609347581863403,0.04823213815689087,0.16069549322128296,-0.43494462966918945,-0.4709365963935852,-0.05150359869003296,0.009818971157073975,-0.026101410388946533,-0.013102233409881592,0.03712528944015503,-0.11778658628463745,-0.032015442848205566,0.42206650972366333,0.49566423892974854,-0.21292150020599365,0.03831744194030762,-0.32621997594833374,-0.49938952922821045,-0.2701449990272522,0.36438506841659546,-0.3518860340118408,-0.2383725643157959,0.05175304412841797,-0.4099807143211365,-0.10776937007904053,-0.023649215698242188,0.0760660171508789,0.2229791283607483,-0.13335120677947998,0.16976892948150635,0.36951524019241333,0.2030988335609436,-0.47568953037261963,0.31842994689941406,-0.3963525891304016,-0.4311298727989197,-0.05813413858413696,0.1040182113647461,-0.1480119228363037,-0.00425875186920166,0.269778847694397,-0.36897599697113037,-0.2962959408760071,0.08113366365432739,0.4458423852920532,-0.4212931990623474,0.10447186231613159],"ptr_offset":0,"data_type":"f32"},"rnn.weight_ih_l1_grad":{"shape":[12,4],"stride":[4,1],"data":[0.0243085864931345,-0.03400406613945961,0.0048854900524020195,0.03114989399909973,-0.03650052100419998,0.056375451385974884,-0.010046819224953651,-0.052629854530096054,0.010199485346674919,-0.015580018982291222,0.002539695706218481,0.014320098794996738,-0.020509377121925354,0.027633806690573692,-0.0028350413776934147,-0.02532496303319931,-0.004828461445868015,0.012228158302605152,-0.004106651991605759,-0.010282507166266441,0.03005160018801689,-0.04169415682554245,0.006955713499337435,0.0393233560025692,-0.04066981375217438,0.03683331981301308,0.0035158470273017883,-0.03282693028450012,0.10444819927215576,-0.14623543620109558,0.01758561097085476,0.12954096496105194,0.2775113582611084,-0.4054311513900757,0.06337884068489075,0.37352633476257324,0.47287842631340027,-0.6967634558677673,0.09944169968366623,0.6371601819992065,0.3243447244167328,-0.4930482506752014,0.08197082579135895,0.45426398515701294,0.2474227249622345,-0.3379955291748047,0.031208444386720657,0.3073463439941406],"ptr_offset":0,"data_type":"f32"},"rnn.weight_hh_l1":{"shape":[12,4],"stride":[4,1],"data":[-0.08473736047744751,0.3273271322250366,0.2460828423500061,-0.4391111135482788,0.34438377618789673,0.07307326793670654,0.2610098719596863,-0.07189244031906128,-0.49005961418151855,0.01854628324508667,0.15514910221099854,0.06848406791687012,-0.16887742280960083,-0.09668433666229248,-0.2772824764251709,0.37104207277297974,-0.3708651661872864,-0.07447224855422974,-0.24286103248596191,-0.30624252557754517,-0.4414331316947937,0.1532803773880005,-0.38786953687667847,-0.12369906902313232,0.07890450954437256,0.11644923686981201,-0.3059192895889282,0.15695720911026,-0.12568259239196777,-0.052563250064849854,-0.48928940296173096,0.05925953388214111,-0.23503994941711426,-0.08596724271774292,-0.4258960485458374,0.05718994140625,-0.09251606464385986,0.20794129371643066,0.16381675004959106,0.47920942306518555,-0.25364792346954346,0.037932634353637695,-0.05075007677078247,-0.05508232116699219,-0.09191328287124634,0.13723701238632202,0.2707595229148865,0.16877174377441406],"ptr_offset":0,"data_type":"f32"},"rnn.weight_hh_l1_grad":{"shape":[12,4],"stride":[4,1],"data":[0.0004856400773860514,-0.00522495387122035,0.007750052958726883,-0.013816937804222107,-0.0009339683456346393,0.010565562173724174,-0.01572899892926216,0.027849361300468445,0.00022201323008630425,-0.0027003963477909565,0.004040011670440435,-0.0070864856243133545,-0.000373058021068573,0.004199167713522911,-0.006249097641557455,0.011071926914155483,-5.593587411567569e-05,0.0018647400429472327,-0.0029059876687824726,0.004710466600954533,0.0007839222671464086,-0.007279698736965656,0.010669777169823647,-0.019452253356575966,-0.00037373873055912554,0.0015052288072183728,-0.0019536635372787714,0.004420040640980005,0.0013774636900052428,-0.018703851848840714,0.028173714876174927,-0.048782072961330414,0.003367276396602392,-0.0379900224506855,0.056545108556747437,-0.10015347599983215,0.00466157728806138,-0.062438346445560455,0.09397576749324799,-0.16296622157096863,0.0020398814231157303,-0.02446344681084156,0.036565154790878296,-0.06425173580646515,0.0018025694880634546,-0.019998665899038315,0.029730655252933502,-0.052779026329517365],"ptr_offset":0,"data_type":"f32"},"rnn.bias_ih_l1":{"shape":[12],"stride":[1],"data":[0.11362963914871216,-0.30757415294647217,-0.48487865924835205,-0.449432909488678,0.26331621408462524,-0.34234511852264404,0.19906085729599,-0.02831745147705078,-0.23065179586410522,0.04258120059967041,0.3864107131958008,-0.4679272770881653],"ptr_offset":0,"data_type":"f32"},"rnn.bias_ih_l1_grad":{"shape":[12],"stride":[1],"data":[0.1515943706035614,-0.22004660964012146,0.06289481371641159,-0.12836609780788422,-0.033358074724674225,0.18083330988883972,-0.2663813829421997,0.6773943305015564,1.7124485969543457,2.9453835487365723,1.99424409866333,1.561807632446289],"ptr_offset":0,"data_type":"f32"},"rnn.bias_hh_l1":{"shape":[12],"stride":[1],"data":[0.040867745876312256,0.3373962640762329,-0.39379221200942993,0.3507571816444397,0.35322457551956177,-0.30068475008010864,0.1122063398361206,0.12116897106170654,0.38527029752731323,-0.2526973485946655,0.15340620279312134,-0.3300989866256714],"ptr_offset":0,"data_type":"f32"},"rnn.bias_hh_l1_grad":{"shape":[12],"stride":[1],"data":[0.1515943706035614,-0.22004660964012146,0.06289481371641159,-0.12836609780788422,-0.033358074724674225,0.18083330988883972,-0.2663813531398773,0.6773943305015564,0.9295488595962524,1.540578007698059,0.5742676258087158,0.676785945892334],"ptr_offset":0,"data_type":"f32"}}
