{
  "input": {
    "shape": [
      1,
      2,
      2
    ],
    "stride": [
      4,
      2,
      1
    ],
    "data": [
      0.2592390775680542,
      0.830463707447052,
      0.14714659750461578,
      0.6113940477371216
    ],
    "ptr_offset": 0,
    "data_type": "f32"
  },
  "input_grad": {
    "shape": [
      1,
      2,
      2
    ],
    "stride": [
      2,
      2,
      1
    ],
    "data": [
      -0.913144588470459,
      0.9267381429672241,
      -0.8490420579910278,
      0.5530864596366882
    ],
    "ptr_offset": 0,
    "data_type": "f32"
  },
  "output": {
    "shape": [
      1,
      2,
      8
    ],
    "stride": [
      8,
      8,
      1
    ],
    "data": [
      -0.10011205077171326,
      0.05121304467320442,
      0.19010379910469055,
      0.06093539297580719,
      -0.44403091073036194,
      -0.1447019875049591,
      0.3637543320655823,
      0.3423106074333191,
      -0.12708045542240143,
      0.05982750281691551,
      0.21083970367908478,
      0.08095976710319519,
      -0.27287206053733826,
      -0.11999374628067017,
      0.2607894539833069,
      0.20360958576202393
    ],
    "ptr_offset": 0,
    "data_type": "f32"
  },
  "hidden": {
    "shape": [
      2,
      1,
      4
    ],
    "stride": [
      4,
      4,
      1
    ],
    "data": [
      -0.12708045542240143,
      0.05982750281691551,
      0.21083970367908478,
      0.08095976710319519,
      -0.44403091073036194,
      -0.1447019875049591,
      0.3637543320655823,
      0.3423106074333191
    ],
    "ptr_offset": 0,
    "data_type": "f32"
  },
  "output_grad": {
    "shape": [
      1,
      2,
      8
    ],
    "stride": [
      16,
      8,
      1
    ],
    "data": [
      1.0,
      1.0,
      1.0,
      1.0,
      1.0,
      1.0,
      1.0,
      1.0,
      1.0,
      1.0,
      1.0,
      1.0,
      1.0,
      1.0,
      1.0,
      1.0
    ],
    "ptr_offset": 0,
    "data_type": "f32"
  },
  "rnn.weight_ih_l0": {
    "shape": [
      12,
      2
    ],
    "stride": [
      2,
      1
    ],
    "data": [
      -0.29393529891967773,
      -0.2354046106338501,
      -0.2736983895301819,
      -0.01171422004699707,
      -0.1120719313621521,
      -0.25585615634918213,
      -0.3811384439468384,
      0.20039105415344238,
      0.07771027088165283,
      0.45637834072113037,
      -0.18745321035385132,
      -0.005184590816497803,
      0.28661876916885376,
      -0.29409998655319214,
      0.29849231243133545,
      -0.01645129919052124,
      -0.47241777181625366,
      0.11867189407348633,
      -0.062252938747406006,
      0.3253641724586487,
      -0.23504328727722168,
      0.4766136407852173,
      0.09387791156768799,
      0.3300100564956665
    ],
    "ptr_offset": 0,
    "data_type": "f32"
  },
  "rnn.weight_ih_l0_grad": {
    "shape": [
      12,
      2
    ],
    "stride": [
      2,
      1
    ],
    "data": [
      -0.01119585894048214,
      -0.03853198513388634,
      -0.016942821443080902,
      -0.05795872211456299,
      0.0415324904024601,
      0.1441497802734375,
      -0.007699925452470779,
      -0.026624048128724098,
      0.020754637196660042,
      0.06820712238550186,
      -0.008955031633377075,
      -0.029217081144452095,
      -0.02622232399880886,
      -0.0849529355764389,
      -0.018520860001444817,
      -0.061300233006477356,
      0.2638973891735077,
      0.9199033975601196,
      0.28215643763542175,
      0.982028067111969,
      0.36449214816093445,
      1.2572135925292969,
      0.15481463074684143,
      0.5369293689727783
    ],
    "ptr_offset": 0,
    "data_type": "f32"
  },
  "rnn.weight_hh_l0": {
    "shape": [
      12,
      4
    ],
    "stride": [
      4,
      1
    ],
    "data": [
      0.4569244384765625,
      -0.015212297439575195,
      -0.23909401893615723,
      -0.18990379571914673,
      -0.33094269037246704,
      0.17179161310195923,
      -0.03927803039550781,
      -0.26605308055877686,
      0.14065080881118774,
      -0.21238970756530762,
      -0.3967769742012024,
      -0.34523630142211914,
      -0.4559483528137207,
      0.009122669696807861,
      -0.28554069995880127,
      0.22392666339874268,
      0.3193126320838928,
      -0.19341647624969482,
      0.007557511329650879,
      -0.13868319988250732,
      0.35999155044555664,
      0.4049862027168274,
      -0.16251367330551147,
      -0.20278418064117432,
      -0.33253729343414307,
      0.4252743721008301,
      -0.006201565265655518,
      -0.2446841597557068,
      -0.32781630754470825,
      -0.34694695472717285,
      0.3246065378189087,
      -0.4705963730812073,
      -0.3152329921722412,
      -0.3440869450569153,
      0.17527055740356445,
      -0.13480526208877563,
      -0.21559882164001465,
      -0.1380423903465271,
      0.4105411171913147,
      -0.32774174213409424,
      0.30363476276397705,
      0.4073883891105652,
      0.38864678144454956,
      -0.10087192058563232,
      0.4080387353897095,
      0.1739550232887268,
      0.27508723735809326,
      -0.14776873588562012
    ],
    "ptr_offset": 0,
    "data_type": "f32"
  },
  "rnn.weight_hh_l0_grad": {
    "shape": [
      12,
      4
    ],
    "stride": [
      4,
      1
    ],
    "data": [
      0.0019065187079831958,
      -0.0009752934565767646,
      -0.003620307892560959,
      -0.0011604443425312638,
      0.002633355325087905,
      -0.0013471120037138462,
      -0.005000505596399307,
      -0.0016028494574129581,
      -0.007937931455671787,
      0.004060706589370966,
      0.01507341954857111,
      0.004831596277654171,
      0.0013997016940265894,
      -0.0007160275126807392,
      -0.002657907782122493,
      -0.0008519591065123677,
      -0.0012300583766773343,
      0.0006292452453635633,
      0.0023357702884823084,
      0.0007487019756808877,
      0.0003789127804338932,
      -0.00019383557082619518,
      -0.0007195213693194091,
      -0.00023063356638886034,
      0.0006796859670430422,
      -0.00034769828198477626,
      -0.0012906626798212528,
      -0.00041370574035681784,
      0.0014080521650612354,
      -0.0007202992564998567,
      -0.0026737647131085396,
      -0.0008570417994633317,
      -0.030364781618118286,
      0.015533323399722576,
      0.057659994810819626,
      0.018482189625501633,
      -0.03173614665865898,
      0.016234856098890305,
      0.06026409566402435,
      0.0193169005215168,
      -0.027364393696188927,
      0.013998453505337238,
      0.05196252837777138,
      0.0166559386998415,
      -0.018056737259030342,
      0.009237054735422134,
      0.03428812325000763,
      0.010990628041327
    ],
    "ptr_offset": 0,
    "data_type": "f32"
  },
  "rnn.bias_ih_l0": {
    "shape": [
      12
    ],
    "stride": [
      1
    ],
    "data": [
      0.3621029257774353,
      0.2209208607673645,
      0.4849410057067871,
      0.16417956352233887,
      -0.2732517123222351,
      0.07431995868682861,
      -0.4107363820075989,
      0.3979913592338562,
      -0.07062560319900513,
      -0.014007925987243652,
      -0.24856919050216675,
      0.037780702114105225
    ],
    "ptr_offset": 0,
    "data_type": "f32"
  },
  "rnn.bias_ih_l0_grad": {
    "shape": [
      12
    ],
    "stride": [
      1
    ],
    "data": [
      -0.051421768963336945,
      -0.07672959566116333,
      0.19449365139007568,
      -0.03574742376804352,
      0.08537253737449646,
      -0.03618007153272629,
      -0.104086734354496,
      -0.07752463221549988,
      1.2480906248092651,
      1.3297412395477295,
      1.682631492614746,
      0.7237602472305298
    ],
    "ptr_offset": 0,
    "data_type": "f32"
  },
  "rnn.bias_hh_l0": {
    "shape": [
      12
    ],
    "stride": [
      1
    ],
    "data": [
      0.21008563041687012,
      0.08179092407226562,
      -0.48366135358810425,
      0.2371860146522522,
      -0.14639079570770264,
      -0.22875869274139404,
      -0.21050816774368286,
      0.37872809171676636,
      -0.18502658605575562,
      -0.26464563608169556,
      0.4482738971710205,
      -0.21330034732818604
    ],
    "ptr_offset": 0,
    "data_type": "f32"
  },
  "rnn.bias_hh_l0_grad": {
    "shape": [
      12
    ],
    "stride": [
      1
    ],
    "data": [
      -0.051421768963336945,
      -0.07672959566116333,
      0.19449365139007568,
      -0.03574742376804352,
      0.08537253737449646,
      -0.03618007153272629,
      -0.104086734354496,
      -0.07752463221549988,
      0.7146279811859131,
      0.7454557418823242,
      0.7324371337890625,
      0.4455128312110901
    ],
    "ptr_offset": 0,
    "data_type": "f32"
  },
  "rnn.weight_ih_l0_reverse": {
    "shape": [
      12,
      2
    ],
    "stride": [
      2,
      1
    ],
    "data": [
      0.041500091552734375,
      0.41386866569519043,
      0.2287663221359253,
      -0.046216368675231934,
      0.4122282862663269,
      0.17475122213363647,
      -0.4086981415748596,
      0.09675180912017822,
      -0.15097850561141968,
      -0.4846007823944092,
      0.027293622493743896,
      -0.28783494234085083,
      0.09455627202987671,
      -0.1475018858909607,
      -0.12935149669647217,
      0.007330954074859619,
      -0.27126598358154297,
      -0.41627049446105957,
      -0.04455381631851196,
      0.21184378862380981,
      -0.4679863452911377,
      0.02080214023590088,
      0.22054052352905273,
      0.2214983105659485
    ],
    "ptr_offset": 0,
    "data_type": "f32"
  },
  "rnn.weight_ih_l0_reverse_grad": {
    "shape": [
      12,
      2
    ],
    "stride": [
      2,
      1
    ],
    "data": [
      -0.0003850212087854743,
      -0.0006132344715297222,
      0.0016766436165198684,
      0.004243035335093737,
      0.02572140470147133,
      0.092323437333107,
      -0.010278795845806599,
      -0.03741798549890518,
      0.02435702458024025,
      0.09081780165433884,
      0.022221796214580536,
      0.08877617120742798,
      -0.032384924590587616,
      -0.12489300966262817,
      -0.048411522060632706,
      -0.18132621049880981,
      0.2547094225883484,
      0.9187960028648376,
      0.20254728198051453,
      0.7421080470085144,
      0.2473609745502472,
      0.902851402759552,
      0.15344052016735077,
      0.5633108615875244
    ],
    "ptr_offset": 0,
    "data_type": "f32"
  },
  "rnn.weight_hh_l0_reverse": {
    "shape": [
      12,
      4
    ],
    "stride": [
      4,
      1
    ],
    "data": [
      0.21206408739089966,
      -0.38926053047180176,
      0.2701604962348938,
      0.36133795976638794,
      -0.49177902936935425,
      0.11875617504119873,
      0.06254309415817261,
      -0.09502732753753662,
      0.03189009428024292,
      -0.261776328086853,
      -0.26111549139022827,
      -0.33088791370391846,
      0.08926951885223389,
      -0.4775983691215515,
      -0.3824111223220825,
      -0.39734482765197754,
      -0.40500301122665405,
      0.3857038617134094,
      -0.4107307195663452,
      -0.0642542839050293,
      -0.2897740602493286,
      0.432256281375885,
      0.15265321731567383,
      -0.1639336347579956,
      -0.0648878812789917,
      -0.26523441076278687,
      -0.09828060865402222,
      0.06054067611694336,
      -0.07113903760910034,
      0.06631356477737427,
      0.39693838357925415,
      -0.4944344162940979,
      0.38640230894088745,
      0.21333009004592896,
      -0.03365182876586914,
      0.4272300601005554,
      -0.357136607170105,
      0.15678703784942627,
      0.21876895427703857,
      0.10979795455932617,
      -0.4467849135398865,
      0.41229504346847534,
      0.4875878095626831,
      -0.45579028129577637,
      0.3317798972129822,
      -0.3790404796600342,
      0.2335224747657776,
      -0.26242542266845703
    ],
    "ptr_offset": 0,
    "data_type": "f32"
  },
  "rnn.weight_hh_l0_reverse_grad": {
    "shape": [
      12,
      4
    ],
    "stride": [
      4,
      1
    ],
    "data": [
      0.0010913005098700523,
      0.000479892420116812,
      -0.001042978372424841,
      -0.0008142982260324061,
      -0.0030126532074064016,
      -0.001324795070104301,
      0.0028792547527700663,
      0.002247958444058895,
      -0.016094127669930458,
      -0.0070772902108728886,
      0.015381489880383015,
      0.012008992955088615,
      0.005852259695529938,
      0.002573493868112564,
      -0.005593125242739916,
      -0.004366794601082802,
      -0.011488609947264194,
      -0.005052043125033379,
      0.010979901999235153,
      0.00857248343527317,
      -0.003932976629585028,
      -0.001729501411318779,
      0.003758826991543174,
      0.0029346784576773643,
      0.010692937299609184,
      0.004702150821685791,
      -0.010219461284577847,
      -0.007978774607181549,
      0.021928967908024788,
      0.009643123485147953,
      -0.020957965403795242,
      -0.016362788155674934,
      -0.08649449795484543,
      -0.038035403937101364,
      0.08266457915306091,
      0.06453980505466461,
      -0.055845241993665695,
      -0.02455758862197399,
      0.053372450172901154,
      0.04167017713189125,
      -0.07836542278528214,
      -0.03446069359779358,
      0.0748954489827156,
      0.058474112302064896,
      -0.03699560835957527,
      -0.01626858301460743,
      0.03535746410489082,
      0.027605099603533745
    ],
    "ptr_offset": 0,
    "data_type": "f32"
  },
  "rnn.bias_ih_l0_reverse": {
    "shape": [
      12
    ],
    "stride": [
      1
    ],
    "data": [
      0.20736676454544067,
      0.12555354833602905,
      0.029680252075195312,
      0.1258605718612671,
      -0.2747705578804016,
      0.07894456386566162,
      -0.43594878911972046,
      0.17172962427139282,
      -0.11702555418014526,
      -0.40122079849243164,
      0.2913188338279724,
      0.48343461751937866
    ],
    "ptr_offset": 0,
    "data_type": "f32"
  },
  "rnn.bias_ih_l0_reverse_grad": {
    "shape": [
      12
    ],
    "stride": [
      1
    ],
    "data": [
      0.0004299902357161045,
      0.0029839826747775078,
      0.1298713982105255,
      -0.05351642519235611,
      0.13345633447170258,
      0.14003843069076538,
      -0.19023478031158447,
      -0.26778310537338257,
      1.300123929977417,
      1.0693011283874512,
      1.2952353954315186,
      0.8135241866111755
    ],
    "ptr_offset": 0,
    "data_type": "f32"
  },
  "rnn.bias_hh_l0_reverse": {
    "shape": [
      12
    ],
    "stride": [
      1
    ],
    "data": [
      -0.4518372416496277,
      -0.23339033126831055,
      0.10086113214492798,
      -0.15116381645202637,
      -0.34782177209854126,
      0.455873966217041,
      0.010626256465911865,
      0.16173076629638672,
      0.024122297763824463,
      -0.048512279987335205,
      0.36754608154296875,
      -0.2503013014793396
    ],
    "ptr_offset": 0,
    "data_type": "f32"
  },
  "rnn.bias_hh_l0_reverse_grad": {
    "shape": [
      12
    ],
    "stride": [
      1
    ],
    "data": [
      0.0004299902357161045,
      0.0029839826747775078,
      0.1298713982105255,
      -0.05351642519235611,
      0.13345633447170258,
      0.14003843069076538,
      -0.19023478031158447,
      -0.26778310537338257,
      0.68692946434021,
      0.5206332802772522,
      0.7399100065231323,
      0.38850170373916626
    ],
    "ptr_offset": 0,
    "data_type": "f32"
  }
}