{"rnn.weight_ih_l0":{"shape":[16,2],"stride":[2,1],"data":[-0.003743410110473633,0.26822179555892944,-0.4115225672721863,-0.3679695129394531,-0.19257718324661255,0.13407868146896362,-0.009906589984893799,0.39644473791122437,-0.04437202215194702,0.1323062777519226,-0.15110653638839722,-0.09828269481658936,-0.4776742458343506,-0.33114105463027954,-0.20611155033111572,0.018521785736083984,0.19766759872436523,0.30001139640808105,-0.3389705419540405,-0.21773141622543335,0.18160855770111084,0.41519397497177124,-0.10290008783340454,0.3741558790206909,-0.08059167861938477,0.05290704965591431,0.45273810625076294,-0.4638351798057556,-0.3147689700126648,-0.12658262252807617,-0.19489997625350952,0.43200039863586426],"data_type":"f32","ptr_offset":0},"rnn.weight_hh_l0":{"shape":[16,4],"stride":[4,1],"data":[-0.32408982515335083,-0.23016643524169922,-0.3493202328681946,-0.46828049421310425,-0.29187023639678955,0.42979902029037476,0.2231091856956482,0.24233627319335938,0.026295781135559082,-0.25634175539016724,0.08459234237670898,-0.46684736013412476,-0.3612831234931946,-0.257764995098114,0.315468966960907,0.293160617351532,-0.2217475175857544,-0.01804119348526001,0.3197803497314453,0.49706655740737915,0.19844108819961548,0.06754642724990845,0.3352431654930115,-0.2944011688232422,0.09317201375961304,-0.38765275478363037,-0.3465430736541748,-0.2582917809486389,0.2262365221977234,0.20108020305633545,-0.2961762547492981,0.1510535478591919,0.2744860053062439,-0.06310868263244629,0.019090771675109863,0.11585235595703125,0.31018829345703125,0.48009705543518066,-0.3853117823600769,-0.18323487043380737,0.19650495052337646,0.4142746925354004,0.4351036548614502,0.4411783814430237,0.09950727224349976,-0.43479132652282715,0.045996248722076416,-0.31280267238616943,-0.4659770727157593,0.44424623250961304,0.38017988204956055,-0.4987639784812927,0.0935860276222229,-0.08423000574111938,-0.08228057622909546,-0.2288784384727478,0.19227808713912964,-0.2961517572402954,0.18329566717147827,0.25285404920578003,0.3579357862472534,0.18695557117462158,-0.49486762285232544,-0.32434844970703125],"data_type":"f32","ptr_offset":0},"rnn.bias_ih_l0":{"shape":[16],"stride":[1],"data":[0.2496575117111206,0.10465067625045776,-0.3900420069694519,-0.28790974617004395,0.4703746438026428,0.3369089365005493,-0.21801257133483887,-0.1258423924446106,-0.4762990474700928,-0.008987069129943848,-0.3765294551849365,-0.38567835092544556,-0.027549803256988525,0.0750725269317627,-0.20476514101028442,0.2966887950897217],"data_type":"f32","ptr_offset":0},"rnn.bias_hh_l0":{"shape":[16],"stride":[1],"data":[-0.30426955223083496,0.45368504524230957,0.3426499366760254,-0.42164146900177,-0.12444216012954712,0.022561311721801758,0.07295054197311401,0.11858713626861572,0.19621413946151733,0.029950082302093506,-0.24396437406539917,0.23659449815750122,-0.4796244502067566,-0.2963533401489258,-0.1251649260520935,-0.2435566782951355],"data_type":"f32","ptr_offset":0},"rnn.weight_ih_l1":{"shape":[16,4],"stride":[4,1],"data":[-0.17491668462753296,-0.4098108410835266,-0.10635757446289062,0.10687822103500366,-0.32573288679122925,-0.025659680366516113,0.3579254150390625,-0.05140012502670288,0.01389610767364502,-0.043134450912475586,0.10119068622589111,0.3179197311401367,0.4736230969429016,0.3175279498100281,0.474706768989563,-0.036160826683044434,-0.44916075468063354,-0.23703861236572266,0.3404526114463806,-0.003241240978240967,-0.24852317571640015,-0.383155882358551,-0.467926025390625,-0.4220041036605835,-0.1014183759689331,0.27420300245285034,0.2703205347061157,-0.482215940952301,0.31189101934432983,-0.391254723072052,-0.1057051420211792,-0.20273631811141968,-0.09630763530731201,-0.09817135334014893,-0.4486749768257141,-0.43171894550323486,-0.07823973894119263,0.006466090679168701,-0.22713744640350342,0.18834960460662842,-0.450029194355011,-0.03374361991882324,0.43970972299575806,-0.20394599437713623,0.4515015482902527,0.18107688426971436,-0.4512304663658142,0.316348671913147,-0.05769723653793335,-0.22320342063903809,0.39982664585113525,-0.4040476083755493,0.05365246534347534,-0.10468435287475586,0.35705631971359253,0.13957226276397705,0.24025267362594604,0.17657947540283203,-0.12023735046386719,-0.10515272617340088,-0.41204071044921875,0.27092206478118896,0.39698904752731323,0.3421124219894409],"data_type":"f32","ptr_offset":0},"rnn.weight_hh_l1":{"shape":[16,4],"stride":[4,1],"data":[-0.35268914699554443,0.02229994535446167,-0.35246706008911133,-0.2752420902252197,-0.2913527488708496,0.1708725094795227,-0.29795658588409424,-0.01090860366821289,0.021034061908721924,0.32231152057647705,-0.3779600262641907,-0.3432561159133911,-0.29033076763153076,0.34996670484542847,-0.17973250150680542,0.42174434661865234,0.18080377578735352,0.06331300735473633,-0.0037220120429992676,-0.09884077310562134,0.06273317337036133,-0.11417233943939209,-0.0035132169723510742,0.0637965202331543,-0.39110255241394043,-0.26206570863723755,0.4037463665008545,-0.4057733416557312,-0.035903096199035645,0.49461936950683594,0.1806185245513916,0.014156520366668701,-0.43330496549606323,0.24768894910812378,-0.3561403751373291,-0.14193212985992432,-0.16775816679000854,-0.07404369115829468,0.005469143390655518,0.41240376234054565,0.06241941452026367,0.4478464126586914,0.30585622787475586,-0.31610697507858276,0.22425204515457153,-0.3534480333328247,-0.21191257238388062,0.14706134796142578,0.16509604454040527,0.3751140236854553,-0.160957932472229,0.0008004307746887207,0.25741177797317505,-0.48354607820510864,0.36149030923843384,-0.41346120834350586,0.0068912506103515625,-0.08500838279724121,-0.2633364796638489,0.06608551740646362,0.4134593605995178,-0.14615976810455322,-0.29684704542160034,-0.18491941690444946],"data_type":"f32","ptr_offset":0},"rnn.bias_ih_l1":{"shape":[16],"stride":[1],"data":[-0.4955741763114929,0.22569698095321655,-0.24013185501098633,-0.33367013931274414,-0.28805071115493774,0.2874780297279358,0.26478683948516846,0.383760929107666,0.18136155605316162,-0.1669798493385315,-0.13972407579421997,0.14771497249603271,0.41101735830307007,0.1359460949897766,-0.23657268285751343,-0.23503869771957397],"data_type":"f32","ptr_offset":0},"rnn.bias_hh_l1":{"shape":[16],"stride":[1],"data":[-0.4727345108985901,0.108024001121521,-0.2805912494659424,-0.4457879066467285,0.4384382367134094,-0.3247056007385254,-0.05688077211380005,0.14324676990509033,0.01592916250228882,-0.3364408612251282,-0.40416085720062256,0.3985412120819092,0.08141934871673584,0.41481226682662964,-0.16762030124664307,0.14727771282196045],"data_type":"f32","ptr_offset":0},"rnn.weight_ih_l2":{"shape":[16,4],"stride":[4,1],"data":[-0.11433809995651245,-0.022235572338104248,-0.3045220971107483,0.16910046339035034,0.1580829620361328,-0.01031428575515747,-0.11245107650756836,-0.3082149028778076,0.345772385597229,-0.3722120523452759,0.20483273267745972,-0.16812676191329956,-0.24123400449752808,0.08982253074645996,-0.25972849130630493,0.11520242691040039,0.09819042682647705,-0.37124472856521606,0.08324927091598511,0.21296459436416626,0.19791549444198608,-0.0629393458366394,-0.40989381074905396,-0.07707703113555908,0.17365384101867676,-0.18243855237960815,0.1897905468940735,0.33298128843307495,-0.26107579469680786,0.00493091344833374,0.20674949884414673,0.039188921451568604,0.04176574945449829,0.062432706356048584,-0.3930738568305969,0.03929412364959717,0.34623491764068604,0.4505568742752075,0.29387545585632324,0.06700152158737183,0.23350709676742554,-0.24323982000350952,-0.4143441915512085,-0.42996054887771606,0.49880486726760864,0.3173946738243103,-0.34561687707901,0.1956213116645813,0.3775838017463684,0.4998074173927307,0.4371974468231201,0.38737690448760986,-0.11462962627410889,-0.17547082901000977,0.4105244278907776,0.2801898121833801,-0.3008894920349121,0.4495086073875427,0.24157929420471191,0.2725677490234375,-0.3133881688117981,0.14344990253448486,-0.17528122663497925,0.3906782865524292],"data_type":"f32","ptr_offset":0},"rnn.weight_hh_l2":{"shape":[16,4],"stride":[4,1],"data":[-0.08997029066085815,0.19465625286102295,0.08881092071533203,0.21273410320281982,-0.16991376876831055,0.24378567934036255,-0.349235475063324,0.11292749643325806,-0.33829593658447266,-0.49326878786087036,-0.40152788162231445,0.39473503828048706,0.27051782608032227,0.46910786628723145,0.4005606174468994,-0.44652271270751953,-0.3412155508995056,-0.08079129457473755,-0.32471615076065063,0.3471982479095459,-0.37800389528274536,-0.2439507246017456,-0.48304569721221924,-0.2838727831840515,0.41123872995376587,0.4093800187110901,0.3579188585281372,0.3860636353492737,0.44459325075149536,-0.12803149223327637,0.22000104188919067,0.44546520709991455,0.1654093861579895,0.4998381733894348,0.25933146476745605,0.3108241558074951,-0.17499607801437378,0.23991376161575317,0.057453274726867676,-0.11940866708755493,-0.28185492753982544,-0.2805582880973816,-0.38474041223526,0.33566516637802124,0.3554655909538269,-0.05690634250640869,-0.289342999458313,0.38645273447036743,0.3197444677352905,0.0371670126914978,-0.23606765270233154,0.45952391624450684,0.20447033643722534,-0.37957268953323364,0.47854143381118774,0.3796868920326233,-0.1822454333305359,0.2810772657394409,-0.28409451246261597,-0.07835716009140015,0.4245505928993225,0.020659565925598145,-0.3536090850830078,-0.1671164631843567],"data_type":"f32","ptr_offset":0},"rnn.bias_ih_l2":{"shape":[16],"stride":[1],"data":[-0.1357225775718689,-0.09646439552307129,0.04785031080245972,0.46241480112075806,0.026770174503326416,-0.3087199926376343,0.02562713623046875,0.23974359035491943,0.24802011251449585,-0.4569692611694336,-0.08947122097015381,-0.37157225608825684,-0.2133427858352661,0.1801466941833496,-0.35506510734558105,0.1858634352684021],"data_type":"f32","ptr_offset":0},"rnn.bias_hh_l2":{"shape":[16],"stride":[1],"data":[0.4243890643119812,0.032794177532196045,-0.33324384689331055,-0.17914247512817383,0.10918205976486206,-0.3811590075492859,0.24840515851974487,-0.45393478870391846,-0.48064666986465454,-0.48583030700683594,-0.10143166780471802,0.33621644973754883,-0.4732394814491272,0.41559356451034546,-0.20001143217086792,0.14644205570220947],"data_type":"f32","ptr_offset":0},"rnn.weight_ih_l3":{"shape":[16,4],"stride":[4,1],"data":[0.022801458835601807,-0.45085954666137695,0.41466450691223145,0.2692217230796814,0.4969978332519531,0.2526060938835144,-0.3300344944000244,0.41729187965393066,0.026872217655181885,0.2371082305908203,-0.4009145498275757,-0.14381325244903564,-0.49093878269195557,-0.1947462558746338,0.10786557197570801,-0.39258086681365967,0.15938210487365723,0.26840341091156006,0.06965464353561401,-0.3345416784286499,-0.38765984773635864,-0.15425831079483032,0.21947908401489258,0.4931982159614563,0.28751450777053833,-0.05630463361740112,0.1753082275390625,-0.49053144454956055,-0.4270506501197815,0.233303964138031,-0.28320759534835815,0.24054783582687378,-0.3529660701751709,-0.24765545129776,-0.41184449195861816,0.26092034578323364,-0.05094754695892334,0.3848005533218384,0.3094360828399658,0.27667129039764404,0.016078054904937744,-0.1545889973640442,-0.10871583223342896,0.06645029783248901,0.24785476922988892,-0.35029494762420654,0.4196389317512512,-0.05436503887176514,-0.41897279024124146,-0.2705289125442505,0.44240885972976685,0.4572635889053345,-0.4631398320198059,0.35264915227890015,0.2505795955657959,0.2959592342376709,0.42326462268829346,-0.26947516202926636,0.15788787603378296,0.20461660623550415,-0.14774668216705322,0.16732656955718994,-0.1438567042350769,0.3091306686401367],"data_type":"f32","ptr_offset":0},"rnn.weight_hh_l3":{"shape":[16,4],"stride":[4,1],"data":[-0.1387273073196411,-0.18639785051345825,0.12587451934814453,0.1773468255996704,-0.24428582191467285,0.04419916868209839,0.289767861366272,-0.049748361110687256,0.1521669626235962,-0.12059348821640015,0.17524981498718262,-0.3621971011161804,-0.2940143942832947,-0.2537952661514282,0.45950543880462646,-0.1345420479774475,-0.0013651847839355469,-0.24224776029586792,0.4991450309753418,0.4883350729942322,-0.3770933151245117,-0.4053349494934082,-0.37899649143218994,-0.002411365509033203,-0.12745195627212524,-0.32727283239364624,-0.1793360710144043,0.09446543455123901,-0.26124536991119385,0.11079126596450806,-0.1146579384803772,-0.24228167533874512,0.06869274377822876,0.4111291170120239,-0.3380396366119385,0.023217201232910156,-0.18438386917114258,0.4906531572341919,-0.47438162565231323,-0.4793305993080139,0.4926924705505371,-0.3163449764251709,0.09586167335510254,-0.04315304756164551,-0.1053285002708435,-0.11167389154434204,0.31772029399871826,0.02389848232269287,-0.48680728673934937,-0.295180082321167,-0.1704501509666443,0.2516081929206848,-0.32356685400009155,0.4714598059654236,-0.11136466264724731,-0.08978098630905151,0.39177900552749634,0.25130385160446167,0.4240601658821106,0.28922218084335327,-0.1516769528388977,-0.3317362070083618,-0.037201523780822754,0.4138187766075134],"data_type":"f32","ptr_offset":0},"rnn.bias_ih_l3":{"shape":[16],"stride":[1],"data":[-0.16780990362167358,-0.46368497610092163,0.20496422052383423,0.4867357015609741,-0.14234161376953125,-0.41401177644729614,-0.45352983474731445,0.12529969215393066,-0.03785985708236694,-0.25249361991882324,0.10106593370437622,0.1898794174194336,0.3976594805717468,0.3881911039352417,-0.07484185695648193,-0.4408835768699646],"data_type":"f32","ptr_offset":0},"rnn.bias_hh_l3":{"shape":[16],"stride":[1],"data":[-0.4518115520477295,0.4668447971343994,0.22102761268615723,0.21795368194580078,-0.43261051177978516,0.4630078673362732,0.473671555519104,0.45143014192581177,-0.42179250717163086,-0.18866169452667236,-0.34388190507888794,0.47348278760910034,-0.21483999490737915,-0.2282772660255432,0.26195645332336426,-0.23129618167877197],"data_type":"f32","ptr_offset":0},"input":{"shape":[5,2,2],"stride":[4,2,1],"data":[0.01037487480789423,-0.9964886903762817,0.9785003066062927,-0.44143953919410706,-0.09493295103311539,1.1008661985397339,1.3104606866836548,-0.29284530878067017,0.41807880997657776,-1.131898283958435,-0.8192930817604065,-0.9507610201835632,0.2854461669921875,0.22903010249137878,1.2832690477371216,-1.3792051076889038,1.404171347618103,-0.5477652549743652,-1.283780574798584,-0.2150428295135498],"data_type":"f32","ptr_offset":0},"output":{"shape":[5,2,4],"stride":[8,4,1],"data":[-0.0755462795495987,-0.12127076834440231,-0.06687558442354202,0.13241352140903473,-0.07561793923377991,-0.12127050757408142,-0.0668874979019165,0.13244779407978058,-0.1122233048081398,-0.1926741898059845,-0.09687409549951553,0.21484152972698212,-0.11248276382684708,-0.19259631633758545,-0.09694575518369675,0.21487995982170105,-0.1318562775850296,-0.23636755347251892,-0.11101049929857254,0.2613719701766968,-0.132166787981987,-0.23632852733135223,-0.11112773418426514,0.26147526502609253,-0.14358305931091309,-0.26361870765686035,-0.11766613274812698,0.28757786750793457,-0.14384308457374573,-0.2636137902736664,-0.11778117716312408,0.2877037525177002,-0.15116745233535767,-0.28088486194610596,-0.12080520391464233,0.3027147352695465,-0.151261568069458,-0.28116223216056824,-0.12084364145994186,0.3030562996864319],"data_type":"f32","ptr_offset":0},"input_grad":{"shape":[5,2,2],"stride":[4,2,1],"data":[-0.0006247848505154252,-0.00035088000004179776,-0.0005615049158222973,-0.00023256571148522198,-0.0005040024989284575,8.594398968853056e-05,-0.000460733164800331,-4.375776188680902e-05,-0.0004730181535705924,-0.0003267059219069779,-0.0004147146246396005,-0.000281207961961627,-0.00023639973369427025,-1.2283604519325309e-05,-0.00024297765048686415,-0.0002352385490667075,-7.552647730335593e-05,-3.658295827335678e-05,-1.9971565052401274e-05,-7.656933121324982e-06],"data_type":"f32","ptr_offset":0},"rnn.weight_ih_l0_grad":{"shape":[16,2],"stride":[2,1],"data":[-0.00012638492626138031,0.0004797745496034622,-0.0005350621067918837,-0.0001912117877509445,0.0005379643407650292,-0.0008851863676682115,-0.0004949833382852376,0.0008655274286866188,-4.632263153325766e-05,-2.5177210773108527e-05,4.469702616916038e-05,0.00011214327241759747,0.00011787811672547832,-1.0928502888418734e-05,-4.957566488883458e-05,4.639168764697388e-05,0.0014231059467419982,-0.0005561114521697164,0.0035371107514947653,-0.004171248525381088,-0.0011812788434326649,0.000294196157483384,0.0008800443029031157,-0.0003616316826082766,-0.00016792140377219766,0.00037264806451275945,-0.00034751935163512826,-0.00016109715215861797,0.0005865630810149014,-0.0008973903022706509,-0.00025906020891852677,0.00044061464723199606],"data_type":"f32","ptr_offset":0},"rnn.weight_hh_l0_grad":{"shape":[16,4],"stride":[4,1],"data":[1.057548706739908e-05,1.3592296454589814e-05,2.3730524844722822e-05,6.441974619519897e-06,4.652961706597125e-06,-6.8190524871170055e-06,9.390594641445205e-06,6.066819423722336e-06,-3.277969881310128e-05,-1.8081056623486802e-05,-6.990956899244338e-05,-2.2228392481338233e-05,3.367660247022286e-05,2.099221273965668e-05,7.253815419971943e-05,1.7770620615920052e-05,1.0500309144845232e-05,-4.1878670344885904e-06,2.1893132725381292e-05,6.462992132583167e-06,-9.775655598787125e-06,3.264572296757251e-05,-1.7419055438949727e-05,8.694894404470688e-07,-2.276646591781173e-05,4.50456127509824e-06,-4.71731873403769e-05,-1.4630608347943053e-05,2.4192180717363954e-05,-2.692547241167631e-06,4.935002652928233e-05,1.8840657503460534e-05,-0.00011266906221862882,2.3740052711218596e-05,-0.0002330275601707399,-7.770990487188101e-05,-0.0003785813751164824,-2.0109389879507944e-05,-0.000787439348641783,-0.00022895849542692304,9.25389613257721e-05,-3.421842120587826e-05,0.00018743665714282542,6.324869173113257e-05,-0.0002188866346841678,5.9148365835426375e-05,-0.0004283712478354573,-0.00013959730858914554,2.5419001758564264e-05,8.505932783009484e-06,5.5562708439538255e-05,1.5741818060632795e-05,-1.3590684829978272e-05,5.972213784843916e-06,-2.484388642187696e-05,-5.096263521409128e-06,-5.9521171351661906e-05,-1.579784475325141e-05,-0.0001263530575670302,-3.954448038712144e-05,3.907868449459784e-05,6.387628673110157e-06,8.033053745748475e-05,2.530012898205314e-05],"data_type":"f32","ptr_offset":0},"rnn.bias_ih_l0_grad":{"shape":[16],"stride":[1],"data":[-0.0005526587483473122,-0.00013736668915953487,0.001388886827044189,-0.0007564550032839179,-0.000158477938384749,5.846151907462627e-06,0.00034416173002682626,-0.0003101436886936426,0.003190563526004553,0.008252670988440514,-0.002575456630438566,0.0036559707950800657,-0.0006494395202025771,0.00012224147212691605,0.0016692690551280975,-0.0005668745725415647],"data_type":"f32","ptr_offset":0},"rnn.bias_hh_l0_grad":{"shape":[16],"stride":[1],"data":[-0.0005526587483473122,-0.00013736668915953487,0.001388886827044189,-0.0007564550032839179,-0.000158477938384749,5.846151907462627e-06,0.00034416173002682626,-0.0003101436886936426,0.003190563526004553,0.008252670988440514,-0.002575456630438566,0.0036559707950800657,-0.0006494395202025771,0.00012224147212691605,0.0016692690551280975,-0.0005668745725415647],"data_type":"f32","ptr_offset":0},"rnn.weight_ih_l1_grad":{"shape":[16,4],"stride":[4,1],"data":[-0.00022156574414111674,2.06144068215508e-05,-0.0004471798602025956,-0.00014756106247659773,0.0010851925471797585,-0.00010211380867986009,0.002111986745148897,0.0006582560017704964,0.0011449501616880298,-0.00022598152281716466,0.002187661826610565,0.0006621415377594531,-0.0021879884880036116,0.00039123743772506714,-0.004238014575093985,-0.001275571994483471,-7.160546374507248e-05,1.1768607691919897e-05,-0.0001374137937091291,-3.825669045909308e-05,0.0008567504701204598,-0.00021181600459385663,0.0016107835108414292,0.00047228520270437,0.0005780906067229807,-0.00017770042177289724,0.001061508315615356,0.00031999696511775255,-0.00094409758457914,0.0002828744181897491,-0.00174714473541826,-0.0005138512933626771,-0.0011112606152892113,3.291439134045504e-05,-0.0022251226473599672,-0.000713412999175489,-0.005420110188424587,0.0008185266051441431,-0.010479288175702095,-0.003214180003851652,-0.0017597166588529944,0.00022182994871400297,-0.003389719408005476,-0.0010470913257449865,-0.0033336987253278494,0.0002895339857786894,-0.006501547060906887,-0.0020307176746428013,-0.00013705076707992703,2.2460148102254607e-05,-0.0002675547730177641,-8.419596269959584e-05,0.001266326755285263,-0.00029591191560029984,0.0023625758476555347,0.0007292524096556008,0.0013225185684859753,-0.00038503375253640115,0.002412015339359641,0.0007455953164026141,-0.001989487325772643,0.0005405805422924459,-0.0036748817656189203,-0.001122899353504181],"data_type":"f32","ptr_offset":0},"rnn.weight_hh_l1_grad":{"shape":[16,4],"stride":[4,1],"data":[9.600754856364802e-05,-0.00033527216874063015,-0.00018204559455625713,0.0001778849691618234,-0.0005952281062491238,0.0020649416837841272,0.0011498244712129235,-0.0011298500467091799,-0.0006713479524478316,0.002320199040696025,0.0013169085141271353,-0.0012980829924345016,0.0012171454727649689,-0.004221695475280285,-0.002363180974498391,0.002324562519788742,4.8554422392044216e-05,-0.00016826043429318815,-9.35468779061921e-05,9.16738499654457e-05,-0.0005612745299004018,0.0019407238578423858,0.0011102821445092559,-0.001095262006856501,-0.00037105128285475075,0.0012748957378789783,0.0007466224487870932,-0.0007394783897325397,0.0006104190251789987,-0.002107029315084219,-0.001221911166794598,0.0012088936055079103,0.0005138940759934485,-0.0017932560294866562,-0.0009694343898445368,0.00094794383039698,0.003026651218533516,-0.010490051470696926,-0.005886533763259649,0.005792015697807074,0.000990732223726809,-0.003427391406148672,-0.0019263437716290355,0.0018960291054099798,0.0017741324845701456,-0.006158167030662298,-0.003418558742851019,0.003358778776600957,7.231828203657642e-05,-0.00025029914104379714,-0.00013986212434247136,0.00013715274690184742,-0.0007686702883802354,0.0026412142906337976,0.0015316185308620334,-0.0015146491350606084,-0.0008224816992878914,0.002810814417898655,0.001662641647271812,-0.0016504875384271145,0.0012187513057142496,-0.004184918478131294,-0.0024456889368593693,0.0024232370778918266],"data_type":"f32","ptr_offset":0},"rnn.bias_ih_l1_grad":{"shape":[16],"stride":[1],"data":[0.0031196102499961853,-0.01399228535592556,-0.013301387429237366,0.026936283335089684,0.0008163867169059813,-0.009025748819112778,-0.005758779123425484,0.009641608223319054,0.016079310327768326,0.06706796586513519,0.021897798404097557,0.04394228383898735,0.0017270436510443687,-0.013750975951552391,-0.013249943032860756,0.02093309536576271],"data_type":"f32","ptr_offset":0},"rnn.bias_hh_l1_grad":{"shape":[16],"stride":[1],"data":[0.0031196102499961853,-0.01399228535592556,-0.013301387429237366,0.026936283335089684,0.0008163867169059813,-0.009025748819112778,-0.005758779123425484,0.009641608223319054,0.016079310327768326,0.06706796586513519,0.021897798404097557,0.04394228383898735,0.0017270436510443687,-0.013750975951552391,-0.013249943032860756,0.02093309536576271],"data_type":"f32","ptr_offset":0},"rnn.weight_ih_l2_grad":{"shape":[16,4],"stride":[4,1],"data":[0.0026483372785151005,-0.008962464518845081,-0.005337324924767017,0.005309317726641893,0.008633986115455627,-0.02918587252497673,-0.017222048714756966,0.017112478613853455,0.00026561657432466745,-0.0009900181321427226,-0.00044225831516087055,0.0004181602562312037,-5.565044921240769e-05,0.00020494568161666393,9.077723370864987e-05,-8.625375630799681e-05,0.0016363945323973894,-0.005379219073802233,-0.0034387726336717606,0.0034590247087180614,0.00403931736946106,-0.013419535011053085,-0.008457600139081478,0.00848962552845478,0.00056600256357342,-0.0019411087268963456,-0.0011813465971499681,0.0011783656664192677,-6.729691085638478e-05,0.00023407736443914473,0.0001374922867398709,-0.00013576706987805665,-0.01850784383714199,0.06294895708560944,0.03651534393429756,-0.03617366775870323,-0.0073373266495764256,0.024866094812750816,0.014479651115834713,-0.014355350285768509,-0.029558079317212105,0.09845148772001266,0.0605451725423336,-0.060570403933525085,0.02287786826491356,-0.07749136537313461,-0.04532605782151222,0.04497397691011429,0.0050913747400045395,-0.016775604337453842,-0.010528966784477234,0.010572724975645542,0.00697108032181859,-0.023242177441716194,-0.014185544103384018,0.014176835305988789,0.00046753810602240264,-0.0016471603885293007,-0.0009582354687154293,0.000949560257140547,-6.422238220693544e-05,0.0002312350261490792,0.00011768042168114334,-0.00011422304669395089],"data_type":"f32","ptr_offset":0},"rnn.weight_hh_l2_grad":{"shape":[16,4],"stride":[4,1],"data":[-0.0022335927933454514,-0.00931997038424015,-0.0005036863731220365,-0.00016260126722045243,-0.006958734709769487,-0.028779324144124985,-0.0015205455711111426,-0.0004877905885223299,3.3102496672654524e-05,-0.00013153214240446687,-4.239769259584136e-05,-1.645008524064906e-05,-4.9203754315385595e-06,1.4439347069128416e-05,5.356867404771037e-06,2.1115445179020753e-06,-0.0017772658029571176,-0.0068797767162323,-0.00030220061307772994,-9.111046529142186e-05,-0.004228238947689533,-0.01684534177184105,-0.0008064730209298432,-0.00025102333165705204,-0.0005336289177648723,-0.00233126780949533,-0.00014042061229702085,-4.643666397896595e-05,5.631759995594621e-05,0.00026853737654164433,1.8864229787141085e-05,6.623620265600039e-06,0.013804163783788681,0.05836336687207222,0.0032520077656954527,0.0010581784881651402,0.005552948918193579,0.0231378935277462,0.0012446737382560968,0.00040149976848624647,0.028125420212745667,0.11169424653053284,0.005291045177727938,0.0016422029584646225,-0.01768645830452442,-0.07352183759212494,-0.003935001324862242,-0.001265220926143229,-0.00519605865702033,-0.02002710849046707,-0.0008642467437312007,-0.00025954231387004256,-0.006438931450247765,-0.025576775893568993,-0.001211094669997692,-0.0003764064749702811,-0.0003688239958137274,-0.0017567792674526572,-0.0001245468738488853,-4.2314240999985486e-05,2.26292777369963e-05,0.00013182660040911287,1.2042884009133559e-05,4.3775744416052476e-06],"data_type":"f32","ptr_offset":0},"rnn.bias_ih_l2_grad":{"shape":[16],"stride":[1],"data":[0.04015681520104408,0.13364474475383759,0.005983615294098854,-0.0012499645818024874,0.021948199719190598,0.05515052750706673,0.008120582439005375,-0.0009930366650223732,-0.29461801052093506,-0.11631081998348236,-0.4257754683494568,0.3599780797958374,0.07090415805578232,0.10190415382385254,0.007260045502334833,-0.0012095959391444921],"data_type":"f32","ptr_offset":0},"rnn.bias_hh_l2_grad":{"shape":[16],"stride":[1],"data":[0.04015681520104408,0.13364474475383759,0.005983615294098854,-0.0012499645818024874,0.021948199719190598,0.05515052750706673,0.008120582439005375,-0.0009930366650223732,-0.29461801052093506,-0.11631081998348236,-0.4257754683494568,0.3599780797958374,0.07090415805578232,0.10190415382385254,0.007260045502334833,-0.0012095959391444921],"data_type":"f32","ptr_offset":0},"rnn.weight_ih_l3_grad":{"shape":[16,4],"stride":[4,1],"data":[0.07279142737388611,0.26826274394989014,0.00964164175093174,0.0028290366753935814,0.08260349929332733,0.3117935061454773,0.01234294194728136,0.0037287690211087465,0.03250914439558983,0.12059866636991501,0.004452320747077465,0.0013199105160310864,-0.03401470184326172,-0.13207386434078217,-0.005769718438386917,-0.0017933959607034922,0.0329115092754364,0.11055442690849304,0.002359486650675535,0.0005247963708825409,0.04900383949279785,0.16467100381851196,0.0035257358103990555,0.0007849069079384208,0.02710201032459736,0.09065495431423187,0.0018658086191862822,0.0004057754995301366,-0.03620986267924309,-0.12212708592414856,-0.0026962002739310265,-0.000609862501733005,-0.2841325104236603,-1.045569658279419,-0.03736671805381775,-0.010929122567176819,-0.16973675787448883,-0.6707360744476318,-0.030955975875258446,-0.009773128665983677,-0.3599615693092346,-1.3411296606063843,-0.05037246644496918,-0.01502254419028759,-0.10275551676750183,-0.40068328380584717,-0.01774519868195057,-0.005536873824894428,0.05143321678042412,0.1814935952425003,0.0052772266790270805,0.0014445410342887044,0.10695450752973557,0.36746111512184143,0.009053629823029041,0.0023236689157783985,0.04104812443256378,0.14044971764087677,0.003357975510880351,0.0008536821114830673,-0.14130739867687225,-0.48236748576164246,-0.011362634599208832,-0.0028511816635727882],"data_type":"f32","ptr_offset":0},"rnn.weight_hh_l3_grad":{"shape":[16,4],"stride":[4,1],"data":[0.07373472303152084,0.12839561700820923,0.06276755779981613,-0.1415901482105255,0.0815369263291359,0.14131951332092285,0.06959179788827896,-0.155851349234581,0.03263511508703232,0.056801315397024155,0.02778620831668377,-0.0626310333609581,-0.03225881606340408,-0.055730242282152176,-0.02758316695690155,0.061462026089429855,0.03721233084797859,0.06526871025562286,0.031551294028759,-0.071987085044384,0.05540309473872185,0.09715981036424637,0.046978581696748734,-0.10716306418180466,0.03068595379590988,0.05390176549553871,0.025993628427386284,-0.05944206938147545,-0.040892306715250015,-0.07161577045917511,-0.03470543026924133,0.079004667699337,-0.2887415289878845,-0.5026199221611023,-0.24584849178791046,0.5542995929718018,-0.15664498507976532,-0.27013084292411804,-0.13405995070934296,0.2978651821613312,-0.35916271805763245,-0.6249371767044067,-0.3058457374572754,0.6890609860420227,-0.09680673480033875,-0.16718021035194397,-0.08279192447662354,0.18437136709690094,0.05448300018906593,0.09558116644620895,0.04616085812449455,-0.10531985014677048,0.11587262153625488,0.20436839759349823,0.09782455861568451,-0.22502894699573517,0.04453738033771515,0.07867151498794556,0.037563689053058624,-0.08660814166069031,-0.1538785845041275,-0.27173852920532227,-0.1298259198665619,0.2992189824581146],"data_type":"f32","ptr_offset":0},"rnn.bias_ih_l3_grad":{"shape":[16],"stride":[1],"data":[-0.8443939089775085,-0.9975438117980957,-0.3817730247974396,0.4320361018180847,-0.3195268511772156,-0.47600024938583374,-0.26153355836868286,0.3535483479499817,3.2845442295074463,2.2244200706481934,4.261475563049316,1.3152024745941162,-0.5534690022468567,-1.1001193523406982,-0.4198067784309387,1.4375306367874146],"data_type":"f32","ptr_offset":0},"rnn.bias_hh_l3_grad":{"shape":[16],"stride":[1],"data":[-0.8443939089775085,-0.9975438117980957,-0.3817730247974396,0.4320361018180847,-0.3195268511772156,-0.47600024938583374,-0.26153355836868286,0.3535483479499817,3.2845442295074463,2.2244200706481934,4.261475563049316,1.3152024745941162,-0.5534690022468567,-1.1001193523406982,-0.4198067784309387,1.4375306367874146],"data_type":"f32","ptr_offset":0}}
