{
    "lstm.weight_ih_l0": {
        "shape": [
            16,
            2
        ],
        "stride": [
            2,
            1
        ],
        "data": [
            -0.003743410110473633,
            0.26822179555892944,
            -0.4115225672721863,
            -0.3679695129394531,
            -0.19257718324661255,
            0.13407868146896362,
            -0.009906589984893799,
            0.39644473791122437,
            -0.04437202215194702,
            0.1323062777519226,
            -0.15110653638839722,
            -0.09828269481658936,
            -0.4776742458343506,
            -0.33114105463027954,
            -0.20611155033111572,
            0.018521785736083984,
            0.19766759872436523,
            0.30001139640808105,
            -0.3389705419540405,
            -0.21773141622543335,
            0.18160855770111084,
            0.41519397497177124,
            -0.10290008783340454,
            0.3741558790206909,
            -0.08059167861938477,
            0.05290704965591431,
            0.45273810625076294,
            -0.4638351798057556,
            -0.3147689700126648,
            -0.12658262252807617,
            -0.19489997625350952,
            0.43200039863586426
        ],
        "data_type": "f32",
        "ptr_offset": 0
    },
    "lstm.weight_hh_l0": {
        "shape": [
            16,
            4
        ],
        "stride": [
            4,
            1
        ],
        "data": [
            -0.32408982515335083,
            -0.23016643524169922,
            -0.3493202328681946,
            -0.46828049421310425,
            -0.29187023639678955,
            0.42979902029037476,
            0.2231091856956482,
            0.24233627319335938,
            0.026295781135559082,
            -0.25634175539016724,
            0.08459234237670898,
            -0.46684736013412476,
            -0.3612831234931946,
            -0.257764995098114,
            0.315468966960907,
            0.293160617351532,
            -0.2217475175857544,
            -0.01804119348526001,
            0.3197803497314453,
            0.49706655740737915,
            0.19844108819961548,
            0.06754642724990845,
            0.3352431654930115,
            -0.2944011688232422,
            0.09317201375961304,
            -0.38765275478363037,
            -0.3465430736541748,
            -0.2582917809486389,
            0.2262365221977234,
            0.20108020305633545,
            -0.2961762547492981,
            0.1510535478591919,
            0.2744860053062439,
            -0.06310868263244629,
            0.019090771675109863,
            0.11585235595703125,
            0.31018829345703125,
            0.48009705543518066,
            -0.3853117823600769,
            -0.18323487043380737,
            0.19650495052337646,
            0.4142746925354004,
            0.4351036548614502,
            0.4411783814430237,
            0.09950727224349976,
            -0.43479132652282715,
            0.045996248722076416,
            -0.31280267238616943,
            -0.4659770727157593,
            0.44424623250961304,
            0.38017988204956055,
            -0.4987639784812927,
            0.0935860276222229,
            -0.08423000574111938,
            -0.08228057622909546,
            -0.2288784384727478,
            0.19227808713912964,
            -0.2961517572402954,
            0.18329566717147827,
            0.25285404920578003,
            0.3579357862472534,
            0.18695557117462158,
            -0.49486762285232544,
            -0.32434844970703125
        ],
        "data_type": "f32",
        "ptr_offset": 0
    },
    "lstm.bias_ih_l0": {
        "shape": [
            16
        ],
        "stride": [
            1
        ],
        "data": [
            0.2496575117111206,
            0.10465067625045776,
            -0.3900420069694519,
            -0.28790974617004395,
            0.4703746438026428,
            0.3369089365005493,
            -0.21801257133483887,
            -0.1258423924446106,
            -0.4762990474700928,
            -0.008987069129943848,
            -0.3765294551849365,
            -0.38567835092544556,
            -0.027549803256988525,
            0.0750725269317627,
            -0.20476514101028442,
            0.2966887950897217
        ],
        "data_type": "f32",
        "ptr_offset": 0
    },
    "lstm.bias_hh_l0": {
        "shape": [
            16
        ],
        "stride": [
            1
        ],
        "data": [
            -0.30426955223083496,
            0.45368504524230957,
            0.3426499366760254,
            -0.42164146900177,
            -0.12444216012954712,
            0.022561311721801758,
            0.07295054197311401,
            0.11858713626861572,
            0.19621413946151733,
            0.029950082302093506,
            -0.24396437406539917,
            0.23659449815750122,
            -0.4796244502067566,
            -0.2963533401489258,
            -0.1251649260520935,
            -0.2435566782951355
        ],
        "data_type": "f32",
        "ptr_offset": 0
    },
    "input": {
        "shape": [
            3,
            1,
            2
        ],
        "stride": [
            2,
            2,
            1
        ],
        "data": [
            -0.4583958089351654,
            -0.3359880745410919,
            -1.56998610496521,
            1.2315003871917725,
            1.3946317434310913,
            1.1711024045944214
        ],
        "data_type": "f32",
        "ptr_offset": 0
    },
    "output": {
        "shape": [
            3,
            1,
            4
        ],
        "stride": [
            4,
            4,
            1
        ],
        "data": [
            -0.07654242217540741,
            0.07373838871717453,
            -0.1533033549785614,
            -0.033683788031339645,
            -0.11469782888889313,
            0.06003769859671593,
            -0.20349766314029694,
            0.10028524696826935,
            0.0035833471920341253,
            -0.030354665592312813,
            -0.019471874460577965,
            0.05298767238855362
        ],
        "data_type": "f32",
        "ptr_offset": 0
    },
    "input_grad": {
        "shape": [
            3,
            1,
            2
        ],
        "stride": [
            2,
            2,
            1
        ],
        "data": [
            -0.020566314458847046,
            0.09603265672922134,
            0.07664462178945541,
            0.29361483454704285,
            0.009671762585639954,
            0.22572061419487
        ],
        "data_type": "f32",
        "ptr_offset": 0
    },
    "lstm.weight_ih_l0_grad": {
        "shape": [
            16,
            2
        ],
        "stride": [
            2,
            1
        ],
        "data": [
            0.1453404724597931,
            0.013554690405726433,
            -0.1487499177455902,
            -0.050361938774585724,
            0.13555531203746796,
            -0.013248943723738194,
            -0.10880082845687866,
            0.14180763065814972,
            0.018463362008333206,
            -0.06670679897069931,
            0.02990161068737507,
            0.06501281261444092,
            0.030587321147322655,
            -0.07376036792993546,
            0.05106724053621292,
            0.0048989951610565186,
            -0.483045756816864,
            0.5646927952766418,
            -0.3907122015953064,
            0.2748250961303711,
            -0.2679951786994934,
            0.3568568825721741,
            -0.31374192237854004,
            0.5964647531509399,
            0.15001092851161957,
            -0.07108348608016968,
            -0.11841711401939392,
            0.025079917162656784,
            0.18316614627838135,
            -0.11702525615692139,
            -0.0010333377867937088,
            0.06347494572401047
        ],
        "data_type": "f32",
        "ptr_offset": 0
    },
    "lstm.weight_hh_l0_grad": {
        "shape": [
            16,
            4
        ],
        "stride": [
            4,
            1
        ],
        "data": [
            5.604187390417792e-05,
            -0.00139965012203902,
            0.0008116436074487865,
            0.0040452447719872,
            0.005065904930233955,
            -0.001689375378191471,
            0.008487794548273087,
            -0.007304609753191471,
            0.003048036014661193,
            -0.003198065562173724,
            0.006240785587579012,
            0.0021232222206890583,
            -0.008163662627339363,
            0.007384857628494501,
            -0.016101287677884102,
            -0.0021591864060610533,
            0.005112361628562212,
            -0.0037616873160004616,
            0.009634653106331825,
            -0.0012262072414159775,
            -0.0056776744313538074,
            0.003498896723613143,
            -0.010347253642976284,
            0.0033897729590535164,
            0.00550531642511487,
            -0.004194969777017832,
            0.01045012567192316,
            -0.0008897792431525886,
            -0.0011362979421392083,
            9.318673983216286e-05,
            -0.0017553239595144987,
            0.0024921996518969536,
            -0.04970647022128105,
            0.03861839696764946,
            -0.09473829716444016,
            0.00581430085003376,
            -0.031548645347356796,
            0.024187656119465828,
            -0.059962209314107895,
            0.004656585864722729,
            -0.030934857204556465,
            0.023761369287967682,
            -0.058818649500608444,
            0.004433655180037022,
            -0.053862012922763824,
            0.039352260529994965,
            -0.1013619676232338,
            0.013754069805145264,
            0.005562024191021919,
            -0.005475208628922701,
            0.011200706474483013,
            0.0027970648370683193,
            -0.00179730833042413,
            0.0025565510150045156,
            -0.004028581082820892,
            -0.003256133757531643,
            0.009625177830457687,
            -0.008560337126255035,
            0.01890765316784382,
            0.002107699867337942,
            -0.004505943041294813,
            0.0032197614200413227,
            -0.008442058227956295,
            0.0013667552266269922
        ],
        "data_type": "f32",
        "ptr_offset": 0
    },
    "lstm.bias_ih_l0_grad": {
        "shape": [
            16
        ],
        "stride": [
            1
        ],
        "data": [
            -0.11057338863611221,
            -0.0004410967230796814,
            -0.15934044122695923,
            0.051698897033929825,
            -0.05529788136482239,
            0.05470709875226021,
            -0.060972314327955246,
            0.004951487295329571,
            0.8888157606124878,
            0.7968462109565735,
            0.523478090763092,
            0.8852013945579529,
            -0.13324984908103943,
            0.07586897909641266,
            -0.20299504697322845,
            0.030054379254579544
        ],
        "data_type": "f32",
        "ptr_offset": 0
    },
    "lstm.bias_hh_l0_grad": {
        "shape": [
            16
        ],
        "stride": [
            1
        ],
        "data": [
            -0.11057338863611221,
            -0.0004410967230796814,
            -0.15934044122695923,
            0.051698897033929825,
            -0.05529788136482239,
            0.05470709875226021,
            -0.060972314327955246,
            0.004951487295329571,
            0.8888157606124878,
            0.7968462109565735,
            0.523478090763092,
            0.8852013945579529,
            -0.13324984908103943,
            0.07586897909641266,
            -0.20299504697322845,
            0.030054379254579544
        ],
        "data_type": "f32",
        "ptr_offset": 0
    }
}
