{"rnn.weight_ih_l0":{"shape":[4,2],"stride":[2,1],"data":[-0.003743410110473633,0.26822179555892944,-0.4115225672721863,-0.3679695129394531,-0.19257718324661255,0.13407868146896362,-0.009906589984893799,0.39644473791122437],"data_type":"f32","ptr_offset":0},"rnn.weight_hh_l0":{"shape":[4,4],"stride":[4,1],"data":[-0.04437202215194702,0.1323062777519226,-0.15110653638839722,-0.09828269481658936,-0.4776742458343506,-0.33114105463027954,-0.20611155033111572,0.018521785736083984,0.19766759872436523,0.30001139640808105,-0.3389705419540405,-0.21773141622543335,0.18160855770111084,0.41519397497177124,-0.10290008783340454,0.3741558790206909],"data_type":"f32","ptr_offset":0},"rnn.bias_ih_l0":{"shape":[4],"stride":[1],"data":[-0.08059167861938477,0.05290704965591431,0.45273810625076294,-0.4638351798057556],"data_type":"f32","ptr_offset":0},"rnn.bias_hh_l0":{"shape":[4],"stride":[1],"data":[-0.3147689700126648,-0.12658262252807617,-0.19489997625350952,0.43200039863586426],"data_type":"f32","ptr_offset":0},"input":{"shape":[3,1,2],"stride":[2,2,1],"data":[-0.5663174986839294,0.3731146454811096,-0.8919953107833862,-1.5091077089309692,0.3703935444355011,1.4565025568008423],"data_type":"f32","ptr_offset":0},"output":{"shape":[3,1,4],"stride":[4,4,1],"data":[0,0.022082045674324036,0.4169246554374695,0.12169483304023743,0,0.7577149271965027,0.06607982516288757,0,0.08418391644954681,0,0.586718738079071,0.8497177958488464],"data_type":"f32","ptr_offset":0},"input_grad":{"shape":[3,1,2],"stride":[2,2,1],"data":[-0.3120531439781189,0.2516170144081116,-0.8386760354042053,-0.6252549290657043,-0.20622718334197998,0.7987452149391174],"data_type":"f32","ptr_offset":0},"rnn.weight_ih_l0_grad":{"shape":[4,2],"stride":[2,1],"data":[0.3703935444355011,1.4565025568008423,-1.936977505683899,-2.597684383392334,-0.26520225405693054,1.0218181610107422,-0.16511490941047668,1.8093187808990479],"data_type":"f32","ptr_offset":0},"rnn.weight_hh_l0_grad":{"shape":[4,4],"stride":[4,1],"data":[0,0.7577149271965027,0.06607982516288757,0,0,0.04079683497548103,0.7702731490135193,0.22483262419700623,0,0.7667028307914734,0.23577767610549927,0.04953257739543915,0,0.7577149271965027,0.06607982516288757,0],"data_type":"f32","ptr_offset":0},"rnn.bias_ih_l0_grad":{"shape":[4],"stride":[1],"data":[1,2.3578362464904785,1.8882606029510498,1.945597529411316],"data_type":"f32","ptr_offset":0},"rnn.bias_hh_l0_grad":{"shape":[4],"stride":[1],"data":[1,2.3578362464904785,1.8882606029510498,1.945597529411316],"data_type":"f32","ptr_offset":0}}
