{
    "rnn.weight_ih_l0": {
        "shape": [
            4,
            2
        ],
        "stride": [
            2,
            1
        ],
        "data": [
            -0.003743410110473633,
            0.26822179555892944,
            -0.4115225672721863,
            -0.3679695129394531,
            -0.19257718324661255,
            0.13407868146896362,
            -0.009906589984893799,
            0.39644473791122437
        ],
        "data_type": "f32",
        "ptr_offset": 0
    },
    "rnn.weight_hh_l0": {
        "shape": [
            4,
            4
        ],
        "stride": [
            4,
            1
        ],
        "data": [
            -0.04437202215194702,
            0.1323062777519226,
            -0.15110653638839722,
            -0.09828269481658936,
            -0.4776742458343506,
            -0.33114105463027954,
            -0.20611155033111572,
            0.018521785736083984,
            0.19766759872436523,
            0.30001139640808105,
            -0.3389705419540405,
            -0.21773141622543335,
            0.18160855770111084,
            0.41519397497177124,
            -0.10290008783340454,
            0.3741558790206909
        ],
        "data_type": "f32",
        "ptr_offset": 0
    },
    "rnn.bias_ih_l0": {
        "shape": [
            4
        ],
        "stride": [
            1
        ],
        "data": [
            -0.08059167861938477,
            0.05290704965591431,
            0.45273810625076294,
            -0.4638351798057556
        ],
        "data_type": "f32",
        "ptr_offset": 0
    },
    "rnn.bias_hh_l0": {
        "shape": [
            4
        ],
        "stride": [
            1
        ],
        "data": [
            -0.3147689700126648,
            -0.12658262252807617,
            -0.19489997625350952,
            0.43200039863586426
        ],
        "data_type": "f32",
        "ptr_offset": 0
    },
    "input": {
        "shape": [
            1,
            5,
            2
        ],
        "stride": [
            10,
            2,
            1
        ],
        "data": [
            -0.5663174986839294,
            0.3731146454811096,
            -0.8919953107833862,
            -1.5091077089309692,
            0.3703935444355011,
            1.4565025568008423,
            0.9398099184036255,
            0.7748488187789917,
            0.19186942279338837,
            1.2637947797775269
        ],
        "data_type": "f32",
        "ptr_offset": 0
    },
    "output": {
        "shape": [
            1,
            5,
            4
        ],
        "stride": [
            4,
            4,
            1
        ],
        "data": [
            0.0,
            0.022082045674324036,
            0.4169246554374695,
            0.12169483304023743,
            0.0,
            0.7577149271965027,
            0.06607982516288757,
            0.0,
            0.08418391644954681,
            0.0,
            0.586718738079071,
            0.8497177958488464,
            0.0,
            0.0,
            0.0,
            0.5388816595077515,
            0.0,
            0.0,
            0.2730049192905426,
            0.6689149141311646
        ],
        "data_type": "f32",
        "ptr_offset": 0
    },
    "rnn.weight_ih_l0_grad": {
        "shape": [
            4,
            2
        ],
        "stride": [
            2,
            1
        ],
        "data": [
            0.04889742657542229,
            0.1922798901796341,
            0.03199058771133423,
            0.017082329839468002,
            0.23378007113933563,
            0.5983109474182129,
            0.04075084254145622,
            0.25978925824165344
        ],
        "data_type": "f32",
        "ptr_offset": 0
    },
    "rnn.weight_hh_l0_grad": {
        "shape": [
            4,
            4
        ],
        "stride": [
            4,
            1
        ],
        "data": [
            0.0,
            0.10002958029508591,
            0.008723515085875988,
            0.0,
            0.0,
            -0.00040186679689213634,
            -0.007587529718875885,
            -0.0022147002164274454,
            0.0,
            0.1169588565826416,
            -0.0938698872923851,
            -0.049277834594249725,
            0.005115802865475416,
            0.08806800842285156,
            0.043334878981113434,
            0.05329297482967377
        ],
        "data_type": "f32",
        "ptr_offset": 0
    },
    "rnn.bias_ih_l0_grad": {
        "shape": [
            4
        ],
        "stride": [
            1
        ],
        "data": [
            0.13201479613780975,
            -0.04602302238345146,
            -0.047800999134778976,
            0.28602007031440735
        ],
        "data_type": "f32",
        "ptr_offset": 0
    },
    "rnn.bias_hh_l0_grad": {
        "shape": [
            4
        ],
        "stride": [
            1
        ],
        "data": [
            0.13201479613780975,
            -0.04602302238345146,
            -0.04780101031064987,
            0.28602007031440735
        ],
        "data_type": "f32",
        "ptr_offset": 0
    }
}