{
    "rnn.weight_ih_l0": {
        "shape": [
            4,
            2
        ],
        "stride": [
            2,
            1
        ],
        "data": [
            -0.003743410110473633,
            0.26822179555892944,
            -0.4115225672721863,
            -0.3679695129394531,
            -0.19257718324661255,
            0.13407868146896362,
            -0.009906589984893799,
            0.39644473791122437
        ],
        "data_type": "f32",
        "ptr_offset": 0
    },
    "rnn.weight_hh_l0": {
        "shape": [
            4,
            4
        ],
        "stride": [
            4,
            1
        ],
        "data": [
            -0.04437202215194702,
            0.1323062777519226,
            -0.15110653638839722,
            -0.09828269481658936,
            -0.4776742458343506,
            -0.33114105463027954,
            -0.20611155033111572,
            0.018521785736083984,
            0.19766759872436523,
            0.30001139640808105,
            -0.3389705419540405,
            -0.21773141622543335,
            0.18160855770111084,
            0.41519397497177124,
            -0.10290008783340454,
            0.3741558790206909
        ],
        "data_type": "f32",
        "ptr_offset": 0
    },
    "rnn.bias_ih_l0": {
        "shape": [
            4
        ],
        "stride": [
            1
        ],
        "data": [
            -0.08059167861938477,
            0.05290704965591431,
            0.45273810625076294,
            -0.4638351798057556
        ],
        "data_type": "f32",
        "ptr_offset": 0
    },
    "rnn.bias_hh_l0": {
        "shape": [
            4
        ],
        "stride": [
            1
        ],
        "data": [
            -0.3147689700126648,
            -0.12658262252807617,
            -0.19489997625350952,
            0.43200039863586426
        ],
        "data_type": "f32",
        "ptr_offset": 0
    },
    "input": {
        "shape": [
            5,
            1,
            2
        ],
        "stride": [
            2,
            2,
            1
        ],
        "data": [
            -0.5663174986839294,
            0.3731146454811096,
            -0.8919953107833862,
            -1.5091077089309692,
            0.3703935444355011,
            1.4565025568008423,
            0.9398099184036255,
            0.7748488187789917,
            0.19186942279338837,
            1.2637947797775269
        ],
        "data_type": "f32",
        "ptr_offset": 0
    },
    "output": {
        "shape": [
            5,
            1,
            4
        ],
        "stride": [
            4,
            4,
            1
        ],
        "data": [
            0.0,
            0.022082045674324036,
            0.4169246554374695,
            0.12169483304023743,
            0.0,
            0.7577149271965027,
            0.06607982516288757,
            0.0,
            0.08418391644954681,
            0.0,
            0.586718738079071,
            0.8497177958488464,
            0.0,
            0.0,
            0.0,
            0.5388816595077515,
            0.0,
            0.0,
            0.2730049192905426,
            0.6689149141311646
        ],
        "data_type": "f32",
        "ptr_offset": 0
    },
    "input_grad": {
        "shape": [
            5,
            1,
            2
        ],
        "stride": [
            2,
            2,
            1
        ],
        "data": [
            0.21347254514694214,
            -0.32375484704971313,
            -1.0872098207473755,
            -0.2823886275291443,
            0.21732483804225922,
            -0.4598017930984497,
            -0.0012088490184396505,
            0.04837606102228165,
            -0.1259392648935318,
            0.3362851142883301
        ],
        "data_type": "f32",
        "ptr_offset": 0
    },
    "rnn.weight_ih_l0_grad": {
        "shape": [
            4,
            2
        ],
        "stride": [
            2,
            1
        ],
        "data": [
            -0.4087073802947998,
            -1.6071645021438599,
            -1.2794848680496216,
            -2.4867844581604004,
            -1.9889620542526245,
            -4.427369117736816,
            0.7073044180870056,
            0.524072527885437
        ],
        "data_type": "f32",
        "ptr_offset": 0
    },
    "rnn.weight_hh_l0_grad": {
        "shape": [
            4,
            4
        ],
        "stride": [
            4,
            1
        ],
        "data": [
            0.0,
            -0.8360936045646667,
            -0.07291518151760101,
            0.0,
            0.0,
            0.035066891461610794,
            0.6620877385139465,
            0.1932547241449356,
            0.0,
            -0.787562906742096,
            0.8659311532974243,
            0.6087875366210938,
            0.010272519662976265,
            -0.02995855174958706,
            0.06898152828216553,
            0.4475909471511841
        ],
        "data_type": "f32",
        "ptr_offset": 0
    },
    "rnn.bias_ih_l0_grad": {
        "shape": [
            4
        ],
        "stride": [
            1
        ],
        "data": [
            -1.1034408807754517,
            1.3460640907287598,
            1.2207942008972168,
            -0.13542652130126953
        ],
        "data_type": "f32",
        "ptr_offset": 0
    },
    "rnn.bias_hh_l0_grad": {
        "shape": [
            4
        ],
        "stride": [
            1
        ],
        "data": [
            -1.1034408807754517,
            1.3460640907287598,
            1.2207942008972168,
            -0.13542652130126953
        ],
        "data_type": "f32",
        "ptr_offset": 0
    }
}